<?xml version="1.0"?>
<opencv_storage>
<cascade>
  <stageType>BOOST</stageType>
  <featureType>HAAR</featureType>
  <height>18</height>
  <width>18</width>
  <stageParams>
    <boostType>GAB</boostType>
    <minHitRate>9.9500000476837158e-01</minHitRate>
    <maxFalseAlarm>5.0000000000000000e-01</maxFalseAlarm>
    <weightTrimRate>9.4999999999999996e-01</weightTrimRate>
    <maxDepth>1</maxDepth>
    <maxWeakCount>100</maxWeakCount></stageParams>
  <featureParams>
    <maxCatCount>0</maxCatCount>
    <featSize>1</featSize>
    <mode>BASIC</mode></featureParams>
  <stageNum>10</stageNum>
  <stages>
    <!-- stage 0 -->
    <_>
      <maxWeakCount>3</maxWeakCount>
      <stageThreshold>-8.2758659124374390e-01</stageThreshold>
      <weakClassifiers>
        <_>
          <internalNodes>
            0 -1 115 1.0270077735185623e-02</internalNodes>
          <leafValues>
            -8.2812500000000000e-01 7.5568181276321411e-01</leafValues></_>
        <_>
          <internalNodes>
            0 -1 41 -1.0954385623335838e-02</internalNodes>
          <leafValues>
            6.2692707777023315e-01 -7.3352861404418945e-01</leafValues></_>
        <_>
          <internalNodes>
            0 -1 59 -6.4649526029825211e-03</internalNodes>
          <leafValues>
            7.3406702280044556e-01 -5.3885084390640259e-01</leafValues></_></weakClassifiers></_>
    <!-- stage 1 -->
    <_>
      <maxWeakCount>7</maxWeakCount>
      <stageThreshold>-1.0601533651351929e+00</stageThreshold>
      <weakClassifiers>
        <_>
          <internalNodes>
            0 -1 2 -4.3981954455375671e-02</internalNodes>
          <leafValues>
            7.0998793840408325e-01 -5.1490515470504761e-01</leafValues></_>
        <_>
          <internalNodes>
            0 -1 113 1.2661042623221874e-02</internalNodes>
          <leafValues>
            -5.7442814111709595e-01 5.2083069086074829e-01</leafValues></_>
        <_>
          <internalNodes>
            0 -1 23 -1.1267877183854580e-02</internalNodes>
          <leafValues>
            6.3962888717651367e-01 -4.2678457498550415e-01</leafValues></_>
        <_>
          <internalNodes>
            0 -1 103 -5.4687326774001122e-03</internalNodes>
          <leafValues>
            3.0131426453590393e-01 -9.3302160501480103e-01</leafValues></_>
        <_>
          <internalNodes>
            0 -1 19 1.5520421788096428e-02</internalNodes>
          <leafValues>
            -4.8653599619865417e-01 5.4765975475311279e-01</leafValues></_>
        <_>
          <internalNodes>
            0 -1 39 2.3898845538496971e-03</internalNodes>
          <leafValues>
            -5.2616363763809204e-01 4.4912829995155334e-01</leafValues></_>
        <_>
          <internalNodes>
            0 -1 73 -2.9688216745853424e-02</internalNodes>
          <leafValues>
            -8.3310979604721069e-01 1.9205798208713531e-01</leafValues></_></weakClassifiers></_>
    <!-- stage 2 -->
    <_>
      <maxWeakCount>9</maxWeakCount>
      <stageThreshold>-1.1367223262786865e+00</stageThreshold>
      <weakClassifiers>
        <_>
          <internalNodes>
            0 -1 50 -3.7816870957612991e-02</internalNodes>
          <leafValues>
            -7.0824521780014038e-01 5.8899843692779541e-01</leafValues></_>
        <_>
          <internalNodes>
            0 -1 59 -9.8343342542648315e-03</internalNodes>
          <leafValues>
            6.2055456638336182e-01 -4.1054368019104004e-01</leafValues></_>
        <_>
          <internalNodes>
            0 -1 92 6.7695467732846737e-03</internalNodes>
          <leafValues>
            -8.8001543283462524e-01 3.1204321980476379e-01</leafValues></_>
        <_>
          <internalNodes>
            0 -1 80 6.5234815701842308e-03</internalNodes>
          <leafValues>
            -5.2079689502716064e-01 4.3922686576843262e-01</leafValues></_>
        <_>
          <internalNodes>
            0 -1 25 4.0653464384377003e-03</internalNodes>
          <leafValues>
            -5.5578249692916870e-01 3.8171556591987610e-01</leafValues></_>
        <_>
          <internalNodes>
            0 -1 7 -1.2964782118797302e-01</internalNodes>
          <leafValues>
            4.7723707556724548e-01 -3.7447106838226318e-01</leafValues></_>
        <_>
          <internalNodes>
            0 -1 71 1.7595879035070539e-03</internalNodes>
          <leafValues>
            -2.9928454756736755e-01 4.7186335921287537e-01</leafValues></_>
        <_>
          <internalNodes>
            0 -1 76 4.2816158384084702e-04</internalNodes>
          <leafValues>
            -4.5040690898895264e-01 3.1326156854629517e-01</leafValues></_>
        <_>
          <internalNodes>
            0 -1 87 -8.0130286514759064e-03</internalNodes>
          <leafValues>
            1.4707306027412415e-01 -8.6423134803771973e-01</leafValues></_></weakClassifiers></_>
    <!-- stage 3 -->
    <_>
      <maxWeakCount>12</maxWeakCount>
      <stageThreshold>-1.1801478862762451e+00</stageThreshold>
      <weakClassifiers>
        <_>
          <internalNodes>
            0 -1 115 1.3824060559272766e-02</internalNodes>
          <leafValues>
            -6.1087864637374878e-01 5.6815814971923828e-01</leafValues></_>
        <_>
          <internalNodes>
            0 -1 1 -3.6661110818386078e-02</internalNodes>
          <leafValues>
            5.6840842962265015e-01 -4.1593864560127258e-01</leafValues></_>
        <_>
          <internalNodes>
            0 -1 12 -1.1578690260648727e-02</internalNodes>
          <leafValues>
            5.3905159235000610e-01 -3.7962308526039124e-01</leafValues></_>
        <_>
          <internalNodes>
            0 -1 65 -8.4737315773963928e-03</internalNodes>
          <leafValues>
            2.8065451979637146e-01 -6.3848054409027100e-01</leafValues></_>
        <_>
          <internalNodes>
            0 -1 21 2.4211622774600983e-02</internalNodes>
          <leafValues>
            -4.0099078416824341e-01 4.3998396396636963e-01</leafValues></_>
        <_>
          <internalNodes>
            0 -1 51 -5.8092847466468811e-02</internalNodes>
          <leafValues>
            -8.5088318586349487e-01 1.0127340257167816e-01</leafValues></_>
        <_>
          <internalNodes>
            0 -1 37 -1.1747077107429504e-02</internalNodes>
          <leafValues>
            4.6846964955329895e-01 -2.8266775608062744e-01</leafValues></_>
        <_>
          <internalNodes>
            0 -1 53 1.0579642839729786e-03</internalNodes>
          <leafValues>
            -6.7395722866058350e-01 2.0008365809917450e-01</leafValues></_>
        <_>
          <internalNodes>
            0 -1 94 7.3300059884786606e-03</internalNodes>
          <leafValues>
            1.9531852006912231e-01 -6.4340132474899292e-01</leafValues></_>
        <_>
          <internalNodes>
            0 -1 90 8.7142065167427063e-03</internalNodes>
          <leafValues>
            1.1271777004003525e-01 -7.5875276327133179e-01</leafValues></_>
        <_>
          <internalNodes>
            0 -1 36 8.7158038513734937e-04</internalNodes>
          <leafValues>
            -1.4417093992233276e-01 8.8179093599319458e-01</leafValues></_>
        <_>
          <internalNodes>
            0 -1 46 8.6594223976135254e-03</internalNodes>
          <leafValues>
            -1.7578245699405670e-01 6.6062831878662109e-01</leafValues></_></weakClassifiers></_>
    <!-- stage 4 -->
    <_>
      <maxWeakCount>9</maxWeakCount>
      <stageThreshold>-1.0405280590057373e+00</stageThreshold>
      <weakClassifiers>
        <_>
          <internalNodes>
            0 -1 27 5.0168479792773724e-03</internalNodes>
          <leafValues>
            -1.7911975085735321e-01 6.8517220020294189e-01</leafValues></_>
        <_>
          <internalNodes>
            0 -1 82 -3.6439006216824055e-03</internalNodes>
          <leafValues>
            4.2353093624114990e-01 -4.8923853039741516e-01</leafValues></_>
        <_>
          <internalNodes>
            0 -1 13 -5.1437038928270340e-02</internalNodes>
          <leafValues>
            3.7509143352508545e-01 -4.1573309898376465e-01</leafValues></_>
        <_>
          <internalNodes>
            0 -1 67 -1.0233230423182249e-03</internalNodes>
          <leafValues>
            -1.8183274567127228e-01 7.8591227531433105e-01</leafValues></_>
        <_>
          <internalNodes>
            0 -1 117 2.5152147281914949e-03</internalNodes>
          <leafValues>
            -7.9146885871887207e-01 1.6780127584934235e-01</leafValues></_>
        <_>
          <internalNodes>
            0 -1 76 6.6901411628350616e-05</internalNodes>
          <leafValues>
            -6.0559386014938354e-01 2.1499860286712646e-01</leafValues></_>
        <_>
          <internalNodes>
            0 -1 20 7.7985005918890238e-04</internalNodes>
          <leafValues>
            -5.2615869045257568e-01 2.3326110839843750e-01</leafValues></_>
        <_>
          <internalNodes>
            0 -1 87 -1.6439493745565414e-02</internalNodes>
          <leafValues>
            1.5030668675899506e-01 -7.5756126642227173e-01</leafValues></_>
        <_>
          <internalNodes>
            0 -1 114 -1.1766240000724792e-02</internalNodes>
          <leafValues>
            -8.2720917463302612e-01 1.1779629439115524e-01</leafValues></_></weakClassifiers></_>
    <!-- stage 5 -->
    <_>
      <maxWeakCount>14</maxWeakCount>
      <stageThreshold>-8.9835232496261597e-01</stageThreshold>
      <weakClassifiers>
        <_>
          <internalNodes>
            0 -1 17 -1.8242476508021355e-03</internalNodes>
          <leafValues>
            5.5187636613845825e-01 -3.4013605117797852e-01</leafValues></_>
        <_>
          <internalNodes>
            0 -1 31 -1.8839314579963684e-02</internalNodes>
          <leafValues>
            6.3012802600860596e-01 -2.6198682188987732e-01</leafValues></_>
        <_>
          <internalNodes>
            0 -1 22 -1.0540897399187088e-01</internalNodes>
          <leafValues>
            -4.5142170786857605e-01 3.7864840030670166e-01</leafValues></_>
        <_>
          <internalNodes>
            0 -1 68 2.5208580773323774e-03</internalNodes>
          <leafValues>
            -5.0286543369293213e-01 2.3437820374965668e-01</leafValues></_>
        <_>
          <internalNodes>
            0 -1 30 2.1519282832741737e-02</internalNodes>
          <leafValues>
            -4.0093070268630981e-01 3.2172310352325439e-01</leafValues></_>
        <_>
          <internalNodes>
            0 -1 100 -5.7469075545668602e-04</internalNodes>
          <leafValues>
            2.9359298944473267e-01 -3.9367932081222534e-01</leafValues></_>
        <_>
          <internalNodes>
            0 -1 93 -7.5373328290879726e-03</internalNodes>
          <leafValues>
            -8.3062428236007690e-01 1.0137742757797241e-01</leafValues></_>
        <_>
          <internalNodes>
            0 -1 74 2.8624489903450012e-02</internalNodes>
          <leafValues>
            1.0912530869245529e-01 -8.4051221609115601e-01</leafValues></_>
        <_>
          <internalNodes>
            0 -1 95 6.8430639803409576e-03</internalNodes>
          <leafValues>
            -7.3630392551422119e-01 1.1127590388059616e-01</leafValues></_>
        <_>
          <internalNodes>
            0 -1 33 -7.1703996509313583e-03</internalNodes>
          <leafValues>
            4.3094649910926819e-01 -2.3324528336524963e-01</leafValues></_>
        <_>
          <internalNodes>
            0 -1 14 -2.0661862567067146e-02</internalNodes>
          <leafValues>
            -1.8160541355609894e-01 4.7852572798728943e-01</leafValues></_>
        <_>
          <internalNodes>
            0 -1 48 -8.8748401030898094e-03</internalNodes>
          <leafValues>
            -8.0688798427581787e-01 1.0757102072238922e-01</leafValues></_>
        <_>
          <internalNodes>
            0 -1 0 2.0801746286451817e-03</internalNodes>
          <leafValues>
            -3.4190222620964050e-01 2.2762656211853027e-01</leafValues></_>
        <_>
          <internalNodes>
            0 -1 66 3.5684590693563223e-03</internalNodes>
          <leafValues>
            -1.9183258712291718e-01 4.6414959430694580e-01</leafValues></_></weakClassifiers></_>
    <!-- stage 6 -->
    <_>
      <maxWeakCount>17</maxWeakCount>
      <stageThreshold>-1.1602032184600830e+00</stageThreshold>
      <weakClassifiers>
        <_>
          <internalNodes>
            0 -1 55 -9.2079322785139084e-03</internalNodes>
          <leafValues>
            -3.8019168376922607e-01 5.8511835336685181e-01</leafValues></_>
        <_>
          <internalNodes>
            0 -1 116 5.0528743304312229e-03</internalNodes>
          <leafValues>
            -4.7915348410606384e-01 3.4877896308898926e-01</leafValues></_>
        <_>
          <internalNodes>
            0 -1 6 -1.3127623498439789e-01</internalNodes>
          <leafValues>
            4.2020705342292786e-01 -3.4091636538505554e-01</leafValues></_>
        <_>
          <internalNodes>
            0 -1 81 -4.1441568173468113e-03</internalNodes>
          <leafValues>
            2.9182451963424683e-01 -3.6610069870948792e-01</leafValues></_>
        <_>
          <internalNodes>
            0 -1 56 -1.2091618031263351e-02</internalNodes>
          <leafValues>
            5.6022673845291138e-01 -1.8498757481575012e-01</leafValues></_>
        <_>
          <internalNodes>
            0 -1 110 -7.5266482308506966e-03</internalNodes>
          <leafValues>
            -7.4546551704406738e-01 1.3059563934803009e-01</leafValues></_>
        <_>
          <internalNodes>
            0 -1 40 -4.5061050914227962e-03</internalNodes>
          <leafValues>
            2.9540929198265076e-01 -3.2504013180732727e-01</leafValues></_>
        <_>
          <internalNodes>
            0 -1 42 1.0162636172026396e-03</internalNodes>
          <leafValues>
            -1.1091051250696182e-01 8.7957638502120972e-01</leafValues></_>
        <_>
          <internalNodes>
            0 -1 88 -8.8782096281647682e-03</internalNodes>
          <leafValues>
            1.3696359097957611e-01 -7.2985011339187622e-01</leafValues></_>
        <_>
          <internalNodes>
            0 -1 5 -5.3905077278614044e-02</internalNodes>
          <leafValues>
            -4.9308201670646667e-01 1.7148055136203766e-01</leafValues></_>
        <_>
          <internalNodes>
            0 -1 119 4.8536928370594978e-03</internalNodes>
          <leafValues>
            -2.9431253671646118e-01 2.9743292927742004e-01</leafValues></_>
        <_>
          <internalNodes>
            0 -1 34 -1.0611200332641602e-01</internalNodes>
          <leafValues>
            -6.3965761661529541e-01 1.2711802124977112e-01</leafValues></_>
        <_>
          <internalNodes>
            0 -1 96 -2.4967484176158905e-02</internalNodes>
          <leafValues>
            -9.0259832143783569e-01 7.1190163493156433e-02</leafValues></_>
        <_>
          <internalNodes>
            0 -1 61 -2.5276200845837593e-02</internalNodes>
          <leafValues>
            5.7619851827621460e-01 -1.5441645681858063e-01</leafValues></_>
        <_>
          <internalNodes>
            0 -1 26 -1.4816276729106903e-02</internalNodes>
          <leafValues>
            4.3240174651145935e-01 -2.0299765467643738e-01</leafValues></_>
        <_>
          <internalNodes>
            0 -1 105 -7.2076553478837013e-03</internalNodes>
          <leafValues>
            2.2495815157890320e-01 -3.9234274625778198e-01</leafValues></_>
        <_>
          <internalNodes>
            0 -1 91 1.6322040930390358e-02</internalNodes>
          <leafValues>
            7.1303464472293854e-02 -9.8287600278854370e-01</leafValues></_></weakClassifiers></_>
    <!-- stage 7 -->
    <_>
      <maxWeakCount>19</maxWeakCount>
      <stageThreshold>-1.1264830827713013e+00</stageThreshold>
      <weakClassifiers>
        <_>
          <internalNodes>
            0 -1 24 -9.0805403888225555e-03</internalNodes>
          <leafValues>
            5.7613426446914673e-01 -1.6055625677108765e-01</leafValues></_>
        <_>
          <internalNodes>
            0 -1 99 -7.4384326580911875e-05</internalNodes>
          <leafValues>
            3.1093066930770874e-01 -4.6092182397842407e-01</leafValues></_>
        <_>
          <internalNodes>
            0 -1 98 1.8657192122191191e-03</internalNodes>
          <leafValues>
            -6.9873809814453125e-01 1.7226861417293549e-01</leafValues></_>
        <_>
          <internalNodes>
            0 -1 77 7.2905102570075542e-05</internalNodes>
          <leafValues>
            -1.5853165090084076e-01 7.8246241807937622e-01</leafValues></_>
        <_>
          <internalNodes>
            0 -1 49 1.1869932059198618e-03</internalNodes>
          <leafValues>
            -1.6269519925117493e-01 7.7841615676879883e-01</leafValues></_>
        <_>
          <internalNodes>
            0 -1 38 -3.9192433468997478e-03</internalNodes>
          <leafValues>
            3.0586659908294678e-01 -3.0172839760780334e-01</leafValues></_>
        <_>
          <internalNodes>
            0 -1 121 1.5153314918279648e-02</internalNodes>
          <leafValues>
            -2.7758231759071350e-01 3.5912859439849854e-01</leafValues></_>
        <_>
          <internalNodes>
            0 -1 70 4.1139440145343542e-04</internalNodes>
          <leafValues>
            -2.9568025469779968e-01 3.0871698260307312e-01</leafValues></_>
        <_>
          <internalNodes>
            0 -1 60 -3.2607184257358313e-03</internalNodes>
          <leafValues>
            3.5220822691917419e-01 -2.5358641147613525e-01</leafValues></_>
        <_>
          <internalNodes>
            0 -1 101 1.5135433059185743e-03</internalNodes>
          <leafValues>
            -3.9871567487716675e-01 2.2799862921237946e-01</leafValues></_>
        <_>
          <internalNodes>
            0 -1 111 -7.5661214068531990e-03</internalNodes>
          <leafValues>
            -9.0511620044708252e-01 7.2240553796291351e-02</leafValues></_>
        <_>
          <internalNodes>
            0 -1 107 -2.9512937180697918e-03</internalNodes>
          <leafValues>
            1.1748576909303665e-01 -5.7105523347854614e-01</leafValues></_>
        <_>
          <internalNodes>
            0 -1 3 -6.2454544007778168e-02</internalNodes>
          <leafValues>
            2.1759086847305298e-01 -3.4120354056358337e-01</leafValues></_>
        <_>
          <internalNodes>
            0 -1 75 4.3373927474021912e-04</internalNodes>
          <leafValues>
            -3.0863773822784424e-01 2.6773774623870850e-01</leafValues></_>
        <_>
          <internalNodes>
            0 -1 45 3.5099338856525719e-04</internalNodes>
          <leafValues>
            -8.4412723779678345e-02 8.9846980571746826e-01</leafValues></_>
        <_>
          <internalNodes>
            0 -1 78 3.2074009068310261e-03</internalNodes>
          <leafValues>
            -2.0086982846260071e-01 4.1423621773719788e-01</leafValues></_>
        <_>
          <internalNodes>
            0 -1 4 4.5611932873725891e-03</internalNodes>
          <leafValues>
            -2.5257515907287598e-01 3.3822301030158997e-01</leafValues></_>
        <_>
          <internalNodes>
            0 -1 97 8.1740207970142365e-03</internalNodes>
          <leafValues>
            1.2042421102523804e-01 -6.8785476684570313e-01</leafValues></_>
        <_>
          <internalNodes>
            0 -1 47 1.6652860213071108e-03</internalNodes>
          <leafValues>
            7.9595349729061127e-02 -7.4413949251174927e-01</leafValues></_></weakClassifiers></_>
    <!-- stage 8 -->
    <_>
      <maxWeakCount>19</maxWeakCount>
      <stageThreshold>-9.9977213144302368e-01</stageThreshold>
      <weakClassifiers>
        <_>
          <internalNodes>
            0 -1 63 -3.8697425276041031e-02</internalNodes>
          <leafValues>
            -3.4977577626705170e-02 6.5291827917098999e-01</leafValues></_>
        <_>
          <internalNodes>
            0 -1 15 -4.3229693546891212e-03</internalNodes>
          <leafValues>
            3.3647245168685913e-01 -3.1170660257339478e-01</leafValues></_>
        <_>
          <internalNodes>
            0 -1 120 9.0847630053758621e-03</internalNodes>
          <leafValues>
            -3.4086021780967712e-01 2.6838678121566772e-01</leafValues></_>
        <_>
          <internalNodes>
            0 -1 10 -2.1932067349553108e-02</internalNodes>
          <leafValues>
            3.5917603969573975e-01 -2.3614937067031860e-01</leafValues></_>
        <_>
          <internalNodes>
            0 -1 100 -9.8222342785447836e-04</internalNodes>
          <leafValues>
            2.1238468587398529e-01 -3.4086897969245911e-01</leafValues></_>
        <_>
          <internalNodes>
            0 -1 29 5.2005685865879059e-03</internalNodes>
          <leafValues>
            -4.2582657933235168e-01 1.7292313277721405e-01</leafValues></_>
        <_>
          <internalNodes>
            0 -1 62 -1.5368589200079441e-02</internalNodes>
          <leafValues>
            1.1417490988969803e-01 -7.2559773921966553e-01</leafValues></_>
        <_>
          <internalNodes>
            0 -1 104 8.6193261668086052e-03</internalNodes>
          <leafValues>
            -2.1791653335094452e-01 3.6047580838203430e-01</leafValues></_>
        <_>
          <internalNodes>
            0 -1 44 4.4690431095659733e-03</internalNodes>
          <leafValues>
            -1.6898129880428314e-01 4.5008271932601929e-01</leafValues></_>
        <_>
          <internalNodes>
            0 -1 32 -7.4914088472723961e-03</internalNodes>
          <leafValues>
            -1.9798322021961212e-01 5.3340554237365723e-01</leafValues></_>
        <_>
          <internalNodes>
            0 -1 86 -9.4357311725616455e-02</internalNodes>
          <leafValues>
            -5.3573960065841675e-01 1.4844487607479095e-01</leafValues></_>
        <_>
          <internalNodes>
            0 -1 107 -1.3928941916674376e-03</internalNodes>
          <leafValues>
            9.2754863202571869e-02 -7.3214906454086304e-01</leafValues></_>
        <_>
          <internalNodes>
            0 -1 89 -6.2507926486432552e-03</internalNodes>
          <leafValues>
            -7.6704204082489014e-01 8.1521242856979370e-02</leafValues></_>
        <_>
          <internalNodes>
            0 -1 72 5.4663978517055511e-04</internalNodes>
          <leafValues>
            -3.7255814671516418e-01 1.8831683695316315e-01</leafValues></_>
        <_>
          <internalNodes>
            0 -1 108 -3.8636587560176849e-03</internalNodes>
          <leafValues>
            -7.4874645471572876e-01 9.2847377061843872e-02</leafValues></_>
        <_>
          <internalNodes>
            0 -1 43 1.4699736610054970e-02</internalNodes>
          <leafValues>
            1.6164353489875793e-01 -4.4622448086738586e-01</leafValues></_>
        <_>
          <internalNodes>
            0 -1 106 5.5289519950747490e-03</internalNodes>
          <leafValues>
            8.8292092084884644e-02 -8.1869065761566162e-01</leafValues></_>
        <_>
          <internalNodes>
            0 -1 58 8.3013938274234533e-04</internalNodes>
          <leafValues>
            -2.5167948007583618e-01 2.9252731800079346e-01</leafValues></_>
        <_>
          <internalNodes>
            0 -1 102 3.4042387269437313e-03</internalNodes>
          <leafValues>
            -2.1822193264961243e-01 3.4006145596504211e-01</leafValues></_></weakClassifiers></_>
    <!-- stage 9 -->
    <_>
      <maxWeakCount>22</maxWeakCount>
      <stageThreshold>-1.0384356975555420e+00</stageThreshold>
      <weakClassifiers>
        <_>
          <internalNodes>
            0 -1 16 -1.5398215036839247e-03</internalNodes>
          <leafValues>
            5.0026524066925049e-01 -2.7766990661621094e-01</leafValues></_>
        <_>
          <internalNodes>
            0 -1 118 3.5198349505662918e-03</internalNodes>
          <leafValues>
            -6.9559645652770996e-01 1.8261538445949554e-01</leafValues></_>
        <_>
          <internalNodes>
            0 -1 83 -1.2129539623856544e-02</internalNodes>
          <leafValues>
            3.8147953152656555e-01 -2.8729048371315002e-01</leafValues></_>
        <_>
          <internalNodes>
            0 -1 52 1.3783872127532959e-02</internalNodes>
          <leafValues>
            1.3337837159633636e-01 -6.8188798427581787e-01</leafValues></_>
        <_>
          <internalNodes>
            0 -1 11 4.2847497388720512e-03</internalNodes>
          <leafValues>
            -3.5844206809997559e-01 2.3894686996936798e-01</leafValues></_>
        <_>
          <internalNodes>
            0 -1 54 -5.8857054682448506e-05</internalNodes>
          <leafValues>
            -4.1606643795967102e-01 2.0133796334266663e-01</leafValues></_>
        <_>
          <internalNodes>
            0 -1 69 7.0622870698571205e-03</internalNodes>
          <leafValues>
            -2.0028109848499298e-01 3.6882513761520386e-01</leafValues></_>
        <_>
          <internalNodes>
            0 -1 57 9.2284921556711197e-03</internalNodes>
          <leafValues>
            -2.2216330468654633e-01 5.1508682966232300e-01</leafValues></_>
        <_>
          <internalNodes>
            0 -1 79 -1.2810298940166831e-03</internalNodes>
          <leafValues>
            -4.7319269180297852e-01 1.5269358456134796e-01</leafValues></_>
        <_>
          <internalNodes>
            0 -1 44 1.0911850258708000e-02</internalNodes>
          <leafValues>
            -1.1980694532394409e-01 5.3879672288894653e-01</leafValues></_>
        <_>
          <internalNodes>
            0 -1 28 -4.5542754232883453e-02</internalNodes>
          <leafValues>
            2.9741594195365906e-01 -3.2160058617591858e-01</leafValues></_>
        <_>
          <internalNodes>
            0 -1 84 -8.9250095188617706e-03</internalNodes>
          <leafValues>
            -3.2012155652046204e-01 2.2614592313766479e-01</leafValues></_>
        <_>
          <internalNodes>
            0 -1 109 4.4945203699171543e-03</internalNodes>
          <leafValues>
            1.1512593924999237e-01 -6.8986815214157104e-01</leafValues></_>
        <_>
          <internalNodes>
            0 -1 18 1.0581925511360168e-02</internalNodes>
          <leafValues>
            -1.7681929469108582e-01 4.6016538143157959e-01</leafValues></_>
        <_>
          <internalNodes>
            0 -1 9 -6.4319700002670288e-02</internalNodes>
          <leafValues>
            6.1984723806381226e-01 -1.1055061221122742e-01</leafValues></_>
        <_>
          <internalNodes>
            0 -1 8 -3.0226282775402069e-02</internalNodes>
          <leafValues>
            6.2390607595443726e-01 -1.2006122618913651e-01</leafValues></_>
        <_>
          <internalNodes>
            0 -1 35 -3.5063358955085278e-03</internalNodes>
          <leafValues>
            -9.1550223529338837e-02 7.6197510957717896e-01</leafValues></_>
        <_>
          <internalNodes>
            0 -1 85 -7.5804106891155243e-03</internalNodes>
          <leafValues>
            4.9827870726585388e-01 -1.1940848827362061e-01</leafValues></_>
        <_>
          <internalNodes>
            0 -1 62 -8.5194960236549377e-02</internalNodes>
          <leafValues>
            -5.9953820705413818e-01 1.5158851444721222e-01</leafValues></_>
        <_>
          <internalNodes>
            0 -1 64 4.5205386413726956e-05</internalNodes>
          <leafValues>
            -1.1562192440032959e-01 6.9798725843429565e-01</leafValues></_>
        <_>
          <internalNodes>
            0 -1 53 5.0218752585351467e-03</internalNodes>
          <leafValues>
            -4.8385781049728394e-01 1.5327687561511993e-01</leafValues></_>
        <_>
          <internalNodes>
            0 -1 112 1.5297312056645751e-03</internalNodes>
          <leafValues>
            1.6327667236328125e-01 -4.1794118285179138e-01</leafValues></_></weakClassifiers></_></stages>
  <features>
    <_>
      <rects>
        <_>
          0 2 12 2 -1.</_>
        <_>
          0 2 6 1 2.</_>
        <_>
          6 3 6 1 2.</_></rects>
      <tilted>0</tilted></_>
    <_>
      <rects>
        <_>
          0 7 10 2 -1.</_>
        <_>
          5 7 5 2 2.</_></rects>
      <tilted>0</tilted></_>
    <_>
      <rects>
        <_>
          0 7 10 8 -1.</_>
        <_>
          5 7 5 8 2.</_></rects>
      <tilted>0</tilted></_>
    <_>
      <rects>
        <_>
          0 9 10 9 -1.</_>
        <_>
          5 9 5 9 2.</_></rects>
      <tilted>0</tilted></_>
    <_>
      <rects>
        <_>
          1 1 10 2 -1.</_>
        <_>
          1 1 5 1 2.</_>
        <_>
          6 2 5 1 2.</_></rects>
      <tilted>0</tilted></_>
    <_>
      <rects>
        <_>
          1 3 15 1 -1.</_>
        <_>
          6 3 5 1 2.</_></rects>
      <tilted>0</tilted></_>
    <_>
      <rects>
        <_>
          1 6 8 12 -1.</_>
        <_>
          5 6 4 12 2.</_></rects>
      <tilted>0</tilted></_>
    <_>
      <rects>
        <_>
          1 6 10 10 -1.</_>
        <_>
          6 6 5 10 2.</_></rects>
      <tilted>0</tilted></_>
    <_>
      <rects>
        <_>
          2 3 6 4 -1.</_>
        <_>
          2 3 3 2 2.</_>
        <_>
          5 5 3 2 2.</_></rects>
      <tilted>0</tilted></_>
    <_>
      <rects>
        <_>
          2 4 6 8 -1.</_>
        <_>
          2 4 3 4 2.</_>
        <_>
          5 8 3 4 2.</_></rects>
      <tilted>0</tilted></_>
    <_>
      <rects>
        <_>
          3 0 11 2 -1.</_>
        <_>
          3 1 11 1 2.</_></rects>
      <tilted>0</tilted></_>
    <_>
      <rects>
        <_>
          3 14 8 2 -1.</_>
        <_>
          3 15 8 1 2.</_></rects>
      <tilted>0</tilted></_>
    <_>
      <rects>
        <_>
          4 0 8 2 -1.</_>
        <_>
          4 1 8 1 2.</_></rects>
      <tilted>0</tilted></_>
    <_>
      <rects>
        <_>
          4 1 6 15 -1.</_>
        <_>
          7 1 3 15 2.</_></rects>
      <tilted>0</tilted></_>
    <_>
      <rects>
        <_>
          4 2 6 3 -1.</_>
        <_>
          6 2 2 3 2.</_></rects>
      <tilted>0</tilted></_>
    <_>
      <rects>
        <_>
          4 7 2 4 -1.</_>
        <_>
          5 7 1 4 2.</_></rects>
      <tilted>0</tilted></_>
    <_>
      <rects>
        <_>
          4 7 4 1 -1.</_>
        <_>
          6 7 2 1 2.</_></rects>
      <tilted>0</tilted></_>
    <_>
      <rects>
        <_>
          4 8 4 1 -1.</_>
        <_>
          6 8 2 1 2.</_></rects>
      <tilted>0</tilted></_>
    <_>
      <rects>
        <_>
          4 12 8 2 -1.</_>
        <_>
          8 12 4 2 2.</_></rects>
      <tilted>0</tilted></_>
    <_>
      <rects>
        <_>
          4 13 7 4 -1.</_>
        <_>
          4 15 7 2 2.</_></rects>
      <tilted>0</tilted></_>
    <_>
      <rects>
        <_>
          4 14 7 2 -1.</_>
        <_>
          4 15 7 1 2.</_></rects>
      <tilted>0</tilted></_>
    <_>
      <rects>
        <_>
          4 14 9 4 -1.</_>
        <_>
          4 16 9 2 2.</_></rects>
      <tilted>0</tilted></_>
    <_>
      <rects>
        <_>
          5 0 7 9 -1.</_>
        <_>
          5 3 7 3 2.</_></rects>
      <tilted>0</tilted></_>
    <_>
      <rects>
        <_>
          5 0 8 2 -1.</_>
        <_>
          5 1 8 1 2.</_></rects>
      <tilted>0</tilted></_>
    <_>
      <rects>
        <_>
          5 0 9 2 -1.</_>
        <_>
          5 1 9 1 2.</_></rects>
      <tilted>0</tilted></_>
    <_>
      <rects>
        <_>
          5 1 8 4 -1.</_>
        <_>
          5 3 8 2 2.</_></rects>
      <tilted>0</tilted></_>
    <_>
      <rects>
        <_>
          5 2 4 4 -1.</_>
        <_>
          7 2 2 4 2.</_></rects>
      <tilted>0</tilted></_>
    <_>
      <rects>
        <_>
          5 2 8 2 -1.</_>
        <_>
          5 3 8 1 2.</_></rects>
      <tilted>0</tilted></_>
    <_>
      <rects>
        <_>
          5 4 9 6 -1.</_>
        <_>
          5 7 9 3 2.</_></rects>
      <tilted>0</tilted></_>
    <_>
      <rects>
        <_>
          5 13 5 4 -1.</_>
        <_>
          5 15 5 2 2.</_></rects>
      <tilted>0</tilted></_>
    <_>
      <rects>
        <_>
          5 14 10 4 -1.</_>
        <_>
          5 16 10 2 2.</_></rects>
      <tilted>0</tilted></_>
    <_>
      <rects>
        <_>
          6 0 7 2 -1.</_>
        <_>
          6 1 7 1 2.</_></rects>
      <tilted>0</tilted></_>
    <_>
      <rects>
        <_>
          6 1 2 9 -1.</_>
        <_>
          6 4 2 3 2.</_></rects>
      <tilted>0</tilted></_>
    <_>
      <rects>
        <_>
          6 1 10 2 -1.</_>
        <_>
          6 1 5 1 2.</_>
        <_>
          11 2 5 1 2.</_></rects>
      <tilted>0</tilted></_>
    <_>
      <rects>
        <_>
          6 1 5 10 -1.</_>
        <_>
          6 6 5 5 2.</_></rects>
      <tilted>0</tilted></_>
    <_>
      <rects>
        <_>
          6 2 6 2 -1.</_>
        <_>
          8 2 2 2 2.</_></rects>
      <tilted>0</tilted></_>
    <_>
      <rects>
        <_>
          6 2 2 9 -1.</_>
        <_>
          6 5 2 3 2.</_></rects>
      <tilted>0</tilted></_>
    <_>
      <rects>
        <_>
          6 2 4 4 -1.</_>
        <_>
          8 2 2 4 2.</_></rects>
      <tilted>0</tilted></_>
    <_>
      <rects>
        <_>
          6 2 12 2 -1.</_>
        <_>
          6 2 6 1 2.</_>
        <_>
          12 3 6 1 2.</_></rects>
      <tilted>0</tilted></_>
    <_>
      <rects>
        <_>
          6 2 7 2 -1.</_>
        <_>
          6 3 7 1 2.</_></rects>
      <tilted>0</tilted></_>
    <_>
      <rects>
        <_>
          6 4 1 4 -1.</_>
        <_>
          6 6 1 2 2.</_></rects>
      <tilted>0</tilted></_>
    <_>
      <rects>
        <_>
          6 4 6 4 -1.</_>
        <_>
          6 6 6 2 2.</_></rects>
      <tilted>0</tilted></_>
    <_>
      <rects>
        <_>
          6 5 2 9 -1.</_>
        <_>
          6 8 2 3 2.</_></rects>
      <tilted>0</tilted></_>
    <_>
      <rects>
        <_>
          6 5 6 4 -1.</_>
        <_>
          9 5 3 4 2.</_></rects>
      <tilted>0</tilted></_>
    <_>
      <rects>
        <_>
          6 5 6 6 -1.</_>
        <_>
          6 8 6 3 2.</_></rects>
      <tilted>0</tilted></_>
    <_>
      <rects>
        <_>
          6 6 2 6 -1.</_>
        <_>
          6 8 2 2 2.</_></rects>
      <tilted>0</tilted></_>
    <_>
      <rects>
        <_>
          6 6 3 4 -1.</_>
        <_>
          6 8 3 2 2.</_></rects>
      <tilted>0</tilted></_>
    <_>
      <rects>
        <_>
          6 7 2 2 -1.</_>
        <_>
          7 7 1 2 2.</_></rects>
      <tilted>0</tilted></_>
    <_>
      <rects>
        <_>
          6 7 2 4 -1.</_>
        <_>
          7 7 1 4 2.</_></rects>
      <tilted>0</tilted></_>
    <_>
      <rects>
        <_>
          6 7 2 6 -1.</_>
        <_>
          6 9 2 2 2.</_></rects>
      <tilted>0</tilted></_>
    <_>
      <rects>
        <_>
          6 7 6 3 -1.</_>
        <_>
          8 7 2 3 2.</_></rects>
      <tilted>0</tilted></_>
    <_>
      <rects>
        <_>
          6 7 6 4 -1.</_>
        <_>
          8 7 2 4 2.</_></rects>
      <tilted>0</tilted></_>
    <_>
      <rects>
        <_>
          6 7 6 5 -1.</_>
        <_>
          9 7 3 5 2.</_></rects>
      <tilted>0</tilted></_>
    <_>
      <rects>
        <_>
          6 7 8 2 -1.</_>
        <_>
          10 7 4 2 2.</_></rects>
      <tilted>0</tilted></_>
    <_>
      <rects>
        <_>
          6 8 4 1 -1.</_>
        <_>
          8 8 2 1 2.</_></rects>
      <tilted>0</tilted></_>
    <_>
      <rects>
        <_>
          6 8 6 1 -1.</_>
        <_>
          8 8 2 1 2.</_></rects>
      <tilted>0</tilted></_>
    <_>
      <rects>
        <_>
          6 8 6 4 -1.</_>
        <_>
          6 8 3 2 2.</_>
        <_>
          9 10 3 2 2.</_></rects>
      <tilted>0</tilted></_>
    <_>
      <rects>
        <_>
          6 9 3 4 -1.</_>
        <_>
          6 11 3 2 2.</_></rects>
      <tilted>0</tilted></_>
    <_>
      <rects>
        <_>
          6 10 4 1 -1.</_>
        <_>
          8 10 2 1 2.</_></rects>
      <tilted>0</tilted></_>
    <_>
      <rects>
        <_>
          7 0 5 2 -1.</_>
        <_>
          7 1 5 1 2.</_></rects>
      <tilted>0</tilted></_>
    <_>
      <rects>
        <_>
          7 1 2 5 -1.</_>
        <_>
          8 1 1 5 2.</_></rects>
      <tilted>0</tilted></_>
    <_>
      <rects>
        <_>
          7 1 4 5 -1.</_>
        <_>
          9 1 2 5 2.</_></rects>
      <tilted>0</tilted></_>
    <_>
      <rects>
        <_>
          7 1 4 12 -1.</_>
        <_>
          7 7 4 6 2.</_></rects>
      <tilted>0</tilted></_>
    <_>
      <rects>
        <_>
          7 1 5 6 -1.</_>
        <_>
          7 3 5 2 2.</_></rects>
      <tilted>0</tilted></_>
    <_>
      <rects>
        <_>
          7 2 1 9 -1.</_>
        <_>
          7 5 1 3 2.</_></rects>
      <tilted>0</tilted></_>
    <_>
      <rects>
        <_>
          7 4 5 4 -1.</_>
        <_>
          7 6 5 2 2.</_></rects>
      <tilted>0</tilted></_>
    <_>
      <rects>
        <_>
          7 5 1 6 -1.</_>
        <_>
          7 8 1 3 2.</_></rects>
      <tilted>0</tilted></_>
    <_>
      <rects>
        <_>
          7 6 1 9 -1.</_>
        <_>
          7 9 1 3 2.</_></rects>
      <tilted>0</tilted></_>
    <_>
      <rects>
        <_>
          7 6 6 2 -1.</_>
        <_>
          10 6 3 2 2.</_></rects>
      <tilted>0</tilted></_>
    <_>
      <rects>
        <_>
          7 6 5 6 -1.</_>
        <_>
          7 9 5 3 2.</_></rects>
      <tilted>0</tilted></_>
    <_>
      <rects>
        <_>
          7 7 2 1 -1.</_>
        <_>
          8 7 1 1 2.</_></rects>
      <tilted>0</tilted></_>
    <_>
      <rects>
        <_>
          7 7 1 4 -1.</_>
        <_>
          7 9 1 2 2.</_></rects>
      <tilted>0</tilted></_>
    <_>
      <rects>
        <_>
          7 7 2 3 -1.</_>
        <_>
          8 7 1 3 2.</_></rects>
      <tilted>0</tilted></_>
    <_>
      <rects>
        <_>
          7 7 3 4 -1.</_>
        <_>
          8 7 1 4 2.</_></rects>
      <tilted>0</tilted></_>
    <_>
      <rects>
        <_>
          7 7 6 4 -1.</_>
        <_>
          10 7 3 4 2.</_></rects>
      <tilted>0</tilted></_>
    <_>
      <rects>
        <_>
          7 8 2 1 -1.</_>
        <_>
          8 8 1 1 2.</_></rects>
      <tilted>0</tilted></_>
    <_>
      <rects>
        <_>
          7 8 2 3 -1.</_>
        <_>
          8 8 1 3 2.</_></rects>
      <tilted>0</tilted></_>
    <_>
      <rects>
        <_>
          7 9 1 6 -1.</_>
        <_>
          7 11 1 2 2.</_></rects>
      <tilted>0</tilted></_>
    <_>
      <rects>
        <_>
          7 9 3 4 -1.</_>
        <_>
          7 11 3 2 2.</_></rects>
      <tilted>0</tilted></_>
    <_>
      <rects>
        <_>
          7 9 6 3 -1.</_>
        <_>
          10 9 3 3 2.</_></rects>
      <tilted>0</tilted></_>
    <_>
      <rects>
        <_>
          7 14 3 4 -1.</_>
        <_>
          7 16 3 2 2.</_></rects>
      <tilted>0</tilted></_>
    <_>
      <rects>
        <_>
          8 0 3 2 -1.</_>
        <_>
          8 1 3 1 2.</_></rects>
      <tilted>0</tilted></_>
    <_>
      <rects>
        <_>
          8 0 4 2 -1.</_>
        <_>
          8 1 4 1 2.</_></rects>
      <tilted>0</tilted></_>
    <_>
      <rects>
        <_>
          8 0 5 2 -1.</_>
        <_>
          8 1 5 1 2.</_></rects>
      <tilted>0</tilted></_>
    <_>
      <rects>
        <_>
          8 1 1 6 -1.</_>
        <_>
          8 3 1 2 2.</_></rects>
      <tilted>0</tilted></_>
    <_>
      <rects>
        <_>
          8 1 2 4 -1.</_>
        <_>
          9 1 1 4 2.</_></rects>
      <tilted>0</tilted></_>
    <_>
      <rects>
        <_>
          8 1 6 10 -1.</_>
        <_>
          8 6 6 5 2.</_></rects>
      <tilted>0</tilted></_>
    <_>
      <rects>
        <_>
          8 2 4 10 -1.</_>
        <_>
          8 7 4 5 2.</_></rects>
      <tilted>0</tilted></_>
    <_>
      <rects>
        <_>
          8 2 4 12 -1.</_>
        <_>
          8 8 4 6 2.</_></rects>
      <tilted>0</tilted></_>
    <_>
      <rects>
        <_>
          8 6 2 5 -1.</_>
        <_>
          9 6 1 5 2.</_></rects>
      <tilted>0</tilted></_>
    <_>
      <rects>
        <_>
          8 6 1 10 -1.</_>
        <_>
          8 11 1 5 2.</_></rects>
      <tilted>0</tilted></_>
    <_>
      <rects>
        <_>
          8 6 2 8 -1.</_>
        <_>
          8 10 2 4 2.</_></rects>
      <tilted>0</tilted></_>
    <_>
      <rects>
        <_>
          8 6 6 6 -1.</_>
        <_>
          11 6 3 6 2.</_></rects>
      <tilted>0</tilted></_>
    <_>
      <rects>
        <_>
          8 7 2 6 -1.</_>
        <_>
          9 7 1 6 2.</_></rects>
      <tilted>0</tilted></_>
    <_>
      <rects>
        <_>
          8 7 4 4 -1.</_>
        <_>
          10 7 2 4 2.</_></rects>
      <tilted>0</tilted></_>
    <_>
      <rects>
        <_>
          8 7 6 6 -1.</_>
        <_>
          11 7 3 6 2.</_></rects>
      <tilted>0</tilted></_>
    <_>
      <rects>
        <_>
          8 7 4 10 -1.</_>
        <_>
          8 12 4 5 2.</_></rects>
      <tilted>0</tilted></_>
    <_>
      <rects>
        <_>
          8 8 1 8 -1.</_>
        <_>
          8 12 1 4 2.</_></rects>
      <tilted>0</tilted></_>
    <_>
      <rects>
        <_>
          8 8 6 1 -1.</_>
        <_>
          11 8 3 1 2.</_></rects>
      <tilted>0</tilted></_>
    <_>
      <rects>
        <_>
          8 9 4 1 -1.</_>
        <_>
          10 9 2 1 2.</_></rects>
      <tilted>0</tilted></_>
    <_>
      <rects>
        <_>
          8 10 1 6 -1.</_>
        <_>
          8 13 1 3 2.</_></rects>
      <tilted>0</tilted></_>
    <_>
      <rects>
        <_>
          8 14 1 4 -1.</_>
        <_>
          8 16 1 2 2.</_></rects>
      <tilted>0</tilted></_>
    <_>
      <rects>
        <_>
          9 2 2 3 -1.</_>
        <_>
          10 2 1 3 2.</_></rects>
      <tilted>0</tilted></_>
    <_>
      <rects>
        <_>
          9 2 3 10 -1.</_>
        <_>
          9 7 3 5 2.</_></rects>
      <tilted>0</tilted></_>
    <_>
      <rects>
        <_>
          9 3 4 2 -1.</_>
        <_>
          11 3 2 2 2.</_></rects>
      <tilted>0</tilted></_>
    <_>
      <rects>
        <_>
          9 4 3 4 -1.</_>
        <_>
          9 6 3 2 2.</_></rects>
      <tilted>0</tilted></_>
    <_>
      <rects>
        <_>
          9 5 1 8 -1.</_>
        <_>
          9 9 1 4 2.</_></rects>
      <tilted>0</tilted></_>
    <_>
      <rects>
        <_>
          9 5 3 4 -1.</_>
        <_>
          9 7 3 2 2.</_></rects>
      <tilted>0</tilted></_>
    <_>
      <rects>
        <_>
          9 6 2 3 -1.</_>
        <_>
          10 6 1 3 2.</_></rects>
      <tilted>0</tilted></_>
    <_>
      <rects>
        <_>
          9 6 1 8 -1.</_>
        <_>
          9 10 1 4 2.</_></rects>
      <tilted>0</tilted></_>
    <_>
      <rects>
        <_>
          9 6 2 8 -1.</_>
        <_>
          10 6 1 8 2.</_></rects>
      <tilted>0</tilted></_>
    <_>
      <rects>
        <_>
          9 9 4 4 -1.</_>
        <_>
          11 9 2 4 2.</_></rects>
      <tilted>0</tilted></_>
    <_>
      <rects>
        <_>
          10 7 2 2 -1.</_>
        <_>
          11 7 1 2 2.</_></rects>
      <tilted>0</tilted></_>
    <_>
      <rects>
        <_>
          10 7 4 3 -1.</_>
        <_>
          12 7 2 3 2.</_></rects>
      <tilted>0</tilted></_>
    <_>
      <rects>
        <_>
          10 7 2 8 -1.</_>
        <_>
          10 11 2 4 2.</_></rects>
      <tilted>0</tilted></_>
    <_>
      <rects>
        <_>
          10 7 4 5 -1.</_>
        <_>
          12 7 2 5 2.</_></rects>
      <tilted>0</tilted></_>
    <_>
      <rects>
        <_>
          10 9 4 1 -1.</_>
        <_>
          12 9 2 1 2.</_></rects>
      <tilted>0</tilted></_>
    <_>
      <rects>
        <_>
          11 6 2 6 -1.</_>
        <_>
          12 6 1 6 2.</_></rects>
      <tilted>0</tilted></_>
    <_>
      <rects>
        <_>
          11 7 2 5 -1.</_>
        <_>
          12 7 1 5 2.</_></rects>
      <tilted>0</tilted></_>
    <_>
      <rects>
        <_>
          11 8 2 2 -1.</_>
        <_>
          12 8 1 2 2.</_></rects>
      <tilted>0</tilted></_>
    <_>
      <rects>
        <_>
          11 8 4 2 -1.</_>
        <_>
          13 8 2 2 2.</_></rects>
      <tilted>0</tilted></_>
    <_>
      <rects>
        <_>
          13 2 4 14 -1.</_>
        <_>
          15 2 2 14 2.</_></rects>
      <tilted>0</tilted></_></features></cascade>
</opencv_storage>
